#w1, w2, b1, b2

#NN1
[[0.6324, -0.3494, 6.4208], [0.5787, 0.8048, 6.7703]]
[-2.003, 56.7203, -0.4694]
[-1.5062, -10.7231, 0.5466]
0.5249

#NN2
[[1.639395245425823, 0.8091466516363945, 0.0014242155128030116], [0.6984169543573733, 2.0515528521315547, -0.006291387971436877]]
[-21.55942655358263, 0.05941373301728636, 0.23157223032974183]
[0.9900378620576955, -0.22406979263999094, -63.644093539123794]
0.31801356719824464

#NN3
[[-0.9782195954848183, 0.33047030284473444, -0.3983322866048262], [0.8136113785493546, 0.23476468439404874, -0.10424421265463994]]
[-0.716723019509313, 0.8851424385941316, -0.8026347631018571]
[-0.7283353678037561, -0.5294504466852938, 0.8048353931675378]
0.06192468087747463

#NN4
[[0.6943913487326945, -1.020441827227744, -0.4392574301450831], [0.71003965545009, -0.9132428750655484, 0.884494812647513]]
[-26.93901188878425, 0.21432925940836944, 0.2535860468639929]
[0.026655913398027833, -1.5354307406985674, 0.13362013945421894]
1.6824333293123268

#NN5
[[-0.005174602070601973, 0.830489878255487, 0.8205685893412478], [0.4727489448487671, -0.034698976939885315, 4.700780371849272]]
[-1.5814136301303614, -0.7396772254260366, 0.5830636078408349]
[-42.826636640415764, 0.03479658835965171, 3.281147522447913]
-0.5209011232598477

#NN6
[[-0.5973184310022872, -61.86025709381122, -1.3205398969294422], [-0.0618801561075568, 1.3331064588330126, -2.060390118669486]]
[0.03948214697893836, 0.25654670695351234, 1.690337709690976]
[-0.0548472986456876, -5.016504970126391E-4, -15.960968267827125]
-2.475469209068694